solver_type L2R_L2LOSS_SVC_DUAL
nr_class 4
label 1 3 2 0
nr_feature 384
bias -1
w
0 0 0 0 
0 0 0 0 
-0.5544332174720702 0 0 0.4027342535799332 
-0.5544332174720702 0 0 0.4027342535799332 
0.2897426125725133 -0.2966147916754981 -0.3419625633009511 0.005450060560990174 
0 0 0 0 
0.6311034992700143 0.06885509538898306 -0.4044628757199367 0.1145593623602317 
-1.666723057519605 0 -0.06771591496603613 1.217950173638515 
0 0 0 0 
0 0 0 0 
0 0 0 0 
-0.3382851249889615 -0.1516178082218553 -0.3032781624785215 0.751263933460269 
0 0 0 0 
-0.7055959272932413 0 0.5072894703799785 -0.1751065860249565 
0 0 0 0 
0 0 0 0 
0.8975177864127848 -0.1553200067454015 -0.6295831472825029 -0.2575563415571647 
0 0 0 0 
1.361427686759744 -1.1142413639783 -1.027095006171803 -0.9782054837291209 
0 0 0 0 
0 0 0 0 
0 0 0 0 
0 0 0 0 
0 0 0 0 
0 0 0 0 
0 0 0 0 
0 0 0 0 
-0.3801997320201369 0.2389057290938356 0.2575488556484369 -0.5858925929156364 
0 0 0 0 
-0.145825708663904 0 0.2878853846215341 0 
0 0 0 0 
0.8972113566142663 -0.3935584731530257 -0.4401707692773265 0 
0 0 0 0 
-0.4873388590278533 0.4296941642037951 -0.01497867442350814 -0.8278242920420505 
0 0 0 0 
0 0 0 0 
0.7849327498112126 -1.138888889556856 -0.4726659016499841 -0.2073968011055088 
0 0 0 0 
0 0 0 0 
0 0 0 0 
0 0 0 0 
0 0 0 0 
0 0 0 0 
0 0 0 0 
0 0 0 0 
0.4104760032887922 -0.2056885035336798 -0.991165326465329 -0.5349680245755828 
0 0 0 0 
0 0 0 0 
0 0 0 0 
0 0 0 0 
0 0 0 0 
0 0 0 0 
0 0 0 0 
-0.3334512931856028 0.686983682622327 -0.9106009574076448 -0.6666666666666666 
0 0 0 0 
0 0 0 0 
-0.5544332174720702 0 0 0.4027342535799332 
0 0 0 0 
0 0 0 0 
0 0 0 0 
0 0 0 0 
0 0 0 0 
0 0 0 0 
0 0 0 0 
0 0 0 0 
0 0 0 0 
0 0 0 0 
0 0 0 0 
0 0 0 0 
0 0 0 0 
0 0 0 0 
0 0 0 0 
0 0 0 0 
0 0 0 0 
0 0 0 0 
0 0 0 0 
0 0 0 0 
0 0 0 0 
0 0 0 0 
0 0 0 0 
0 0 0 0 
0 0 0 0 
0 0 0 0 
0 0 0 0 
0 0 0 0 
0 0 0 0 
0 0 0 0 
0 0 0 0 
0.1802823003210527 0 -0.5432886950115623 0 
0.197298766306919 -0.1132691575755776 -0.6301619257881628 -0.001883837477701107 
0 0 0 0 
0 0 0 0 
0 0 0 0 
0 0 0 0 
0 0 0 0 
0 0 0 0 
0 0 0 0 
0 0 0 0 
0.5548757814690416 -0.2187976873468525 -0.7705926831513205 0.1981663119210305 
0 0 0 0 
0 -0.01528259240005642 0 -0.05426889018770917 
-0.07660905802070797 0 0.1946414317558908 0 
1.226102868289857 -0.4718059693535674 -0.9872674930720078 -0.01995242244924351 
0 0 0 0 
0.09028993565551771 -0.3935584731530257 0.1632964064742584 -0.2710508720312288 
0.09894136419105522 -0.273764318311026 -0.175591678702999 -0.1077604150706356 
0.003667608753366304 0 -0.2817697193227696 0 
0.5440242263964269 -0.01754165924610195 -0.1896460689646063 0 
0.124419101388603 -0.01754165924610196 0.2324681401706048 -0.1751065860249565 
0 0 0 0 
0 0 0 0 
0 0 0 0 
-0.03475453210410926 -0.2077167750692808 -0.09132442447774736 0.08974810961280853 
0 0 0 0 
0.6686568804814073 -0.1698632731579006 0 0 
0 0 0 0 
-0.5954891381159838 0 -1.734723475976807e-18 0.4980638981191804 
-0.7757538553241329 0.3999499312860709 -0.1922808922860248 0.09176767144940833 
0.4661837726588547 -0.1121299789311154 -0.5191723959568999 0.1134322061538181 
0.1872910151730142 0 -0.1604040172984618 0 
0.6438300048078127 3.469446951953614e-18 -0.8986904178930391 0 
0.6563939039677066 -0.1597890473985602 -0.180456220527916 0 
0 0 0 0 
0.748540687326386 -6.938893903907228e-18 -0.4368589099016118 0 
-1.404923813457083 -0.6075570715920989 1.054676289723298 -0.4508058220845582 
-0.09378433330525682 0.5884021578297883 -0.180456220527916 0 
-0.2837243896547478 0.2161629826594308 -0.3443801332569399 0.08430241543666131 
-1.273982108341968 -0.7441149217074434 1.470599217829538 -0.4248701631196502 
0.1196968862157546 0 0 0 
0.06784642825268328 0.3015893238139279 -0.123071228207128 -0.3282919485981745 
0.5681336167395933 -0.6254882681366138 -0.8741503041947165 -0.9563781275037363 
0.2248106930990942 0.08090538886439527 -0.0362189395763855 -0.2711851525191783 
-0.7559229636752203 -0.06054463564761856 0.4099108473717653 0.2306327228651052 
0.0002100386010863265 0 0 0 
0.01241466412495926 0 0.1025831040014498 -0.3836642459710072 
0 0 0 0 
0.2574494214585741 0 0.03492407069017252 0 
1.084710498300225 -0.5671395037412421 -0.7217228522866995 -0.4158991545608908 
0.2069930960832926 -0.814992171425133 -0.1410110781327373 0.03594767678161047 
0 0 0 0 
0 0 0 0 
0 0 0 0 
0 0 0 0 
0.3794161569659052 -0.3273539651441981 0.2389563708729786 -0.2063369848757202 
0 0 0 0 
-0.1562719454185966 -0.2547885858878468 0.08831187409611309 0.01489862592237289 
0.003667608753366304 0 -0.2817697193227696 0 
0 0 0 0 
0.1578441170293733 0 0 0 
0.6563939039677066 -0.1597890473985602 -0.180456220527916 0 
0 0 0 0 
-0.2762532739568008 0.4907533700446042 0.128308199505009 0.4703691811551206 
0 0 0 0 
0.2865748049378531 0 0 0 
0.6272235945570037 -0.09178072685241409 -0.7664814400451729 -0.1638215730129337 
0.3472510741913651 0 -0.0008818841977802263 0 
0 0 0 0 
0.05812108369565606 0 -0.09295489769506719 -0.1484299751451748 
0 0 0 0 
0 0 0 0 
0.4935853929152194 -0.1104339744926245 -0.5068356727929255 0 
-0.3379009326245584 0.7295913332546257 0.07849950274197069 -0.6973336001753412 
0.5035710356789805 -0.1359339126047773 -0.7540095054230943 0.2195015048605589 
-0.1905910419673776 0.1011134236636135 0.3355295404555708 -0.1313028860868992 
0 0 0.1395154249156975 -0.05180406126667762 
0 0 0 0 
0 0 0 0 
0 0 0 0 
0 0 0 0 
0 0 0 0 
0.2062211516915474 0 -0.4761493737897449 -0.05194757068547268 
0 0 0 0 
-0.2784472276887597 -0.108159618856548 -0.1820073238161657 0.2747922713969497 
-0.5991127527822165 0.4759411472549354 0.367632911690802 0.02043246608092156 
0 0 0.1135793064999848 0 
0.03044286352175171 0 0 0 
0.2695185633868588 -0.6090660017035999 -0.2004987755744111 -0.08030228906905426 
0 0 0 0 
0.08965499454378417 -0.3183169417824844 0.2688459275866704 -0.1161829468721811 
0.1307785890112697 -0.06054463564761859 -0.03290232665258094 -0.06751537460476946 
0 0 0 0 
-0.5929196786654164 -0.07121620818466862 0.8552574625984691 -0.1503156138501139 
0 0 0 0 
0 0 0 0 
0 -0.1132691575755776 0 -0.4046180910576343 
-0.368855583906334 -0.1300431916231762 0.1868581992855227 0.286963019870881 
0.07027299102983288 0.3353495221839409 -0.2293960223169696 -0.04336374450816921 
-0.2735415340408172 -0.1977389712933855 0.4081663519422467 0 
0.2512921113959458 -0.05068555075165803 -0.1505314308212684 0.2801133566938791 
0 0 0 0 
0 0 0 0 
0 0 0 0 
0 0 0 0 
-0.05956483883998528 0.6590987385185746 -0.322368764194489 -0.01995902040802803 
0.4873617365657859 -0.8415846901840534 -0.434858970748331 -0.7412765124837882 
0 0 0 0 
0.9047112517124889 -0.1132691575755776 -0.8645984295847504 -0.001883837477701114 
-0.488257398470215 0.1171926110820379 0.5428362399456563 0.06284828570836455 
0 0 0 0 
-0.04536020032287339 0 0.2255126165797795 0 
-0.2079779514990613 0.5464857731987512 -0.0403366991504325 -0.6201249640320663 
-0.4829151201084459 -0.3545612299157556 0.4269495617371004 0.2111166092069426 
-0.8182607864736692 -0.2337774390543885 0.7696030345331699 -0.07900772658915997 
0.4743036289932542 -0.4690977184415223 -0.4398014182589124 -0.6705415797979113 
0.367851263323976 0 -0.3135879414169725 0 
0.06930477951779178 -0.2717531280469306 -0.1003940224773143 0.07020531916661882 
0.7166173995721759 0 -0.3419415363783315 -0.07860716065164261 
-0.240526726307565 0 0.4945305978493068 0 
-0.229798093501446 -0.003205390407917718 -0.2136205360622523 0.2940984695131625 
-1.016899885360987 0.003923453506460312 1.444298346668752 0.06096444823066345 
0 0 0 0 
-0.8182607864736692 -0.4388701834529987 0.9091184594488675 -0.07900772658915997 
0 0 0 0 
-0.7385978539392304 -0.08201640403736335 0.691651262663865 -0.08371608798966622 
0 0 0 0 
0 0 0 0 
0 0 0 0 
0 0 0 0 
0 0 0 0 
0 0 0 0 
0 0 0 0 
0.1867461357852408 -0.005468573164524526 -0.03621893957638549 0.1044209951552715 
0 0 0 0 
0 0 0 0 
0 0 0 0 
0 0 0 0 
0.1165489324649514 0 0 0 
0.2591782229575649 -0.3199617203147792 -0.1965038263787017 -0.7317893894203601 
0 0 0 0 
0 0 0 0 
1.023835191945352 -0.189385431442331 -1.028142750393562 0.2640556168399436 
0 0 0 0 
0 0 0 0 
0 0 0 0 
0.1750402900194417 -0.3585312338626981 -0.2555351195004504 -0.09904009898413441 
0.1124839167065 0 0.2255126165797795 0 
0 0 0 0 
0 0 0 0 
0.1500870958128139 0 0 0 
0 0 0 0 
0.4437722683398931 -0.3431864058105558 -0.3651214762347489 -0.2901108313915693 
0 0 0 0 
0 0 0 0 
0 0 0 0 
0 0 0 0 
0 0 0 0 
0 0 0 0 
0 0 0 0 
0.05042200693510987 -0.4353457994855983 0.3194332578869701 -0.3724710880585038 
0.2560703445624094 -0.5061769825618662 0.0939644612628366 -0.9424007801897203 
0 0 0 0 
0 0 0 0 
0 0 0 0 
0.2787254432535134 -0.7918262763082062 -0.5025735243108939 0.3338765443765708 
0 0 0 0 
0.2074220756469488 0.03283258763636642 -0.2443726251279593 -0.2563921923505435 
0.2879109221736045 -0.2496744879089241 -0.08394849266695252 -0.03030671775147413 
-0.5996469490970069 0.6257321171697876 -0.16974517784113 -0.0638066345894609 
-0.1381945769325204 -0.2451409897864794 0.100551691505736 -0.2785988459404692 
0 0 0 0 
-0.4422049029016941 0.1477000160288087 0 0 
-0.4422049029016941 0.1477000160288087 0 0 
-1.911663287833518 1.409666489833463 -0.5764931295302507 -0.3088468618448316 
0 0 0 0 
0 0 0 0 
0 0 0 0 
-0.04536020032287339 0 0.2255126165797795 0 
0 0 0 0 
0.4828912956181813 0 -6.938893903907228e-18 0 
0 0 0 0 
0.3653003807597069 0.3422597845418194 -0.3661440839994923 -0.02035414614100078 
0 0 0 0 
0 0 0 0 
0 0 0 0 
0.002320232909682376 0.5226376428267918 -0.3829382869118395 -0.2115211940780262 
0 0 0 0 
0.4006979115219318 -0.1973315294543443 -0.04269878488067735 -0.1513842602838281 
0 0 0 0 
0 0 0 0 
0 0 0 0 
0 0 0 0 
0 0 0 0 
0 0 0 0 
-0.7385978539392304 -0.08201640403736335 0.691651262663865 -0.08371608798966622 
0 0 0 0 
-0.5550482305061037 -0.4561503472658 0.6149044704737131 0 
0 0 0 0 
-0.2639000731937222 0 0.3550454490543526 0 
0 0 0 0 
0 0 0 0 
0 0 0 0 
0 0 0 0 
0 0 0 0 
-0.1208700007962537 0.2368315441334806 -0.5536951449118308 -0.2227408445971805 
0 0 0 0 
-0.295150626462659 0.450011961559326 -0.07098890908943409 -0.4037772586668981 
0 0 0 0 
0 0 0 0 
0 0 0 0 
0 0 0 0 
0.3969104201310849 -0.7754588126454665 -0.3612459231924687 0.243909390533273 
0 0 0 0 
0.3391279816706884 0.1551940954542343 -0.2896240181899165 -0.246433253834898 
0 -0.1104339744926245 0 0 
0.02359460663374412 -0.215603026580284 -0.1486548474480112 -0.4708033940991015 
0 0 0 0 
-0.6771215041838338 0.5576914364534716 -0.6632940601893481 -0.4037772586668981 
0 0 0 0 
0 0 0 0 
0.7466652015844527 -0.4876922028226017 0.6785399821324033 -0.03205514571938597 
0 0 0 0 
0 0 -0.02279798461841994 0 
-0.414901381137548 0.6248335499401559 -0.6389824049039096 -0.6773517152397953 
0 0 0 0 
0 0 0 0 
0 0 0 0 
0.09986126586776864 -0.4372785193209051 -0.6603121390446191 0.07391543561331226 
0.286574804937853 -0.3591635233537512 0 -0.09730347971679738 
0.7460640501473149 -0.4452626735931992 -0.6001121235316015 -0.1292918075008915 
0 0 0 0 
0 0.1647260045349639 -0.1281964913484896 0 
0 0 0 0 
0.1309855316332747 0 0.1742626829373748 -0.03534927855847869 
0 0 0 0 
0 0 0 0 
0 0 0 0 
-0.4207264902875236 0.4940294680431038 -0.3065754337573192 0 
0 0 0 0 
0 0 0 0 
0 0 0 0 
0 0 0 0 
0 0 0 0 
-0.1802212331739253 -0.2345502770598729 -0.1274651961189515 -0.3153260051372685 
0 0 0 0 
0 0 0 0 
-0.4495231622901084 0.1559355475913745 -0.3143932241619151 0 
0 0 0 0 
0 0 0 0 
-0.1762685721856556 0 0.2878853846215341 0 
0 0 0 0 
1.056919156305794 -0.1960324566705624 -0.7045895903649831 0.1800980698483304 
0 0 0 0 
0 0 0 0 
0 0 0 0 
0 0 0 0 
0.1714557265626188 0.1483400173891795 -0.009745471986783731 -0.03639747902285142 
0 0 0 0 
0 0 0 0 
0 0 0 0 
0 0 0 0 
0 0 0 0 
-0.3689482830734875 -0.1677709726575531 0.6483589520420411 -0.03639747902285142 
-0.4450423538510501 0.6140255553744354 -0.02487742530645141 -0.2086313683567247 
0 0 0 0 
0 0 0 0 
0 0 0 0 
0.807549539932704 -0.3585312338626981 -0.3627012995548342 -0.3105612930621606 
0 0 0.4945305978493066 0 
0 0 0 0 
0 0 0 0 
0 0 0 0 
0 0 0 0 
0.550061087148952 -0.08533053008426583 -0.5162042297464311 -0.2304074874125168 
-0.242728545500034 -0.08533053008426583 0.2015425188627555 0 
0 0 0 0 
0.2583359455637911 0.2456020377282642 -0.600717692159343 -0.01249898580343088 
0 0 0 0 
0 0 0 0 
0 0 0 0 
0.09894136419105522 -0.273764318311026 -0.175591678702999 -0.1077604150706356 
0.1115427139200248 0 0 -0.2975683842597668 
0 0 0 0 
-0.2742617280464505 -0.3391602860182249 0.5346669952769125 6.505213034913027e-18 
0 0 0 0 
0 0 0 0 
0 0 0 0 
0 0 0 0 
0 0 0 0 
0 0 0 0 
0.7996143145762457 -0.06894542145242162 -0.2568963924341934 -0.1103859440789182 
0 0 0 0 
0.2282629632677447 -0.231907322868695 0 -0.03639747902285142 
0 0 0 0 
0 0 0 0 
